1000000 50
0.034403 0.000000 0.000000 0.000000 0.000000 0.000000 0.000000 0.000000 0.000000 0.033928 0.000000 0.000000 0.000000 0.000000 0.000000 0.000000 0.071853 0.000000 0.000000 0.016440 0.000000 0.000000 0.000000 0.000000 0.023167 0.067938 0.000000 0.000000 0.000000 0.000000 0.176349 0.030154 0.180266 0.272662 0.000000 0.000000 0.000000 0.000000 0.000000 0.000000 0.000000 0.000000 0.000000 0.000000 0.000000 0.000000 0.014462 0.000000 0.000000 0.037916 0.040462
